-0.03300825228260871 -0.003706851990371604 -0.0037776731680492404 -0.01700025763315689 -0.0025909667828399917 0.003525317528786919 -0.002615331878037564 0.005969982965652721 -0.022857580178637347 0.004855942035910569 0.0062329713398744805 -0.0016613292320006245 -0.015232481678139377 -0.0012119446564956146 0.009734695012234531 0.03311540784476613 0.03380567999339725 0.02181240279348345 -0.027675612379265916 0.0028981917802682992 -0.017630184815401035 -0.020496781702554753 -0.006995089716657609 -0.0015209782527483564 -0.0051980872960607 -0.008892598373564205 -0.01363001349995789 -0.022308163109948306 -0.0025394993854505714 0.012031677921599836 0.004518624826489873 0.005172784738766069 0.016559788598484077 0.03400715643920796 0.01678852172577466 0.017547547946547188 -0.017022608735744477 0.004968537752872356 -0.0005278073210990502 -0.0072346702947869565 -0.000631256356212815 0.010271615707673813 0.026759798025146875 0.020778826126490322 0.013574647796641035 -0.012897218944703893 -0.0046832093756277796 -0.013873142696267146 -0.020803385559637982 -0.019333855693522105 -0.0047250549804051 0.014448615107199466 0.01806582506041598 0.014629128267153325 -0.05203192064727597 -0.006331304945645395 0.010187919211189203 0.003497230895713242 -0.00014766147443617822 0.009112654860028558 0.0265113492489326 -0.0012373905459388012 0.0018260660174664576 -0.00537503489387823 0.006625082435823784 -0.010626595801842938 -0.0013335038944310487 0.008849799033058329 0.019307460783838607 0.027139648606782488 0.011662842655431695 0.030346160407228855 0.0006280737405437171 0.002308799038731713 -0.004295728786920468 -0.011136426323339206 -0.012105710300941448 -0.0010048040980891867 0.015977896535391854 0.018397123174291853 0.013531638112965271 0.0013572340896063886 -0.013781363499566988 -0.005042139960099556 0.004823090176907852 -0.018432497646203652 -0.019675181464613885 0.02938063715696994 0.04319334033813362 0.03665837724694188 -0.009733698799974948 0.0071531033932686 -0.008543624489550204 0.0008730456529674032 0.013337210794220015 0.024044611620021136 0.03251313667445481 0.01691740793959762 0.03037018805933207 -0.00892292973456321 0.0049907328660032555 -0.0006547264992345687 0.0012769127714999779 -0.027837957143279586 -0.014768506235780021 -0.010148500775921039 -0.009267334054145648 -0.0029376672708028816 0.009472705304783547 -0.011271261958429426 -0.0033498315177150116 0.0044405828603252704 -0.017360117732997758 -0.014767018574229816 0.0351947933864411 0.04874979599447033 0.04212003485327415 0.04409251826616328 -0.01332498284402662 -0.01992841869643881 -0.02896051821882775 -0.031001278430393627 -0.0101601110986765 0.002311585242100632 0.004450413936735784 0.028774149684737436 -0.0036675707846127057 0.0076137349610032375 0.001797848416898114 0.0008429913084952879 -0.020541049029138978 -0.012479399521243616 -0.006852744963631096 -0.005383124199065244 -1.1814162595835307e-05 0.026538293781767693 0.011080221700952223 0.00933065267973955 -0.004830064887490706 -0.03419748887090996 -0.03718387477246607 -0.003782043671658564 -0.019335764900515147 0.015379005179444176 0.06567700804106472 -0.011811436543794303 -0.021190801119903305 -0.030387618108881242 -0.02899320915337644 -0.0075184644983000565 0.005168681171880662 0.009269850142728625 0.03145266814403452 -0.02458378471345557 0.002422426191006439 0.000332535029045392 -0.013452822880246759 -0.011375118328851559 -0.019007804881264266 -0.00578465763451859 0.005880442869726539 -0.03781996604829548 0.0367637690390836 0.01118411496431914 0.011953324348020784 -0.003679792570726941 -0.025968612828684817 -0.029728465630840372 0.0029747564514998183 -0.009405152063393698 0.018711739425915423 -0.0033308583448683907 -0.00787020851836895 0.014568781959340683 0.010930119840030332 0.00498227207219895 0.029127265772733894 0.028056976921497032 0.001825134179435538 0.008802620239869621 -0.03862256608951478 0.007806863298158682 -0.004172230116625268 -0.025503388533541105 -0.014380612736100667 -0.019162095568149396 -0.015427724981917069 -0.008221224380166264 -0.039665459864294324 -0.000896926532401182 -0.01895565629542674 -0.02962820457383302 -0.02380507420304286 0.00028645303740581455 0.02119235642615339 0.040505257757282226 0.023134239679949944 -0.009061192494084049 0.004836492526771974 -0.005950404253790936 0.0155372388307241 0.007520429223470768 -0.00023320461516183644 0.018154447955501505 0.02016916928719066 0.0013688065084442088 0.008381250055730004 -0.033696030343674646 -0.004643307950282838 0.015621959748710664 0.018712358368345935 0.013816767346081974 0.026168162508460165 0.016467776252432113 0.0025837501333010166 -0.04093845908049323 -0.03300717983891428 -0.02287556959425802 -0.036451848027854526 -0.024772412759357144 -0.002866347938855591 0.013428257812962098 0.02780597837975287 0.00871844277515902 -0.025754395638055132 -0.03985768582945407 -0.015192239454532117 -0.013303511609808808 -0.0059294259420512845 0.004158365050309717 0.008056090831940525 0.02926349831420499 0.010208327934812826 -0.026632437722105978 -0.030507434696199633 -0.006715106893113195 0.01041269688642472 0.01239990388460156 0.004718334386962284 0.01797467733755088 0.01405135024522082 -0.005584229895028991 -0.042578423123246424 -0.015399520364363904 0.005305434712050336 -0.0015766982302955986 -0.009421270690514199 -0.00947595994833956 -0.005736013082625251 0.0066449056455057665 0.012351973439902568 -0.026425615774712894 -0.01041684157773289 0.00011251121778887573 -0.017106163936558887 -0.024597281062233096 -0.010188889742339245 0.0034639799348231757 0.0008071936608439713 -0.0026277957868786807 -0.004413698814226306 -0.013976957694431046 -0.00022472295535521308 0.012444411841745115 0.002555559029969115 0.005877201820983502 0.02184986784526076 0.04020413481462514 0.02274901977631754 0.020911351894041717 -0.01672345779900208 0.02661492371218693 0.0057629277506887075 -0.007248852262966324 0.016540371845376517 0.028690521330418106 -0.004295438891152833 0.012780954491384272 -0.008649669120344108 -0.01753268986995713 -0.014157164142166782 0.00930940635897057 0.012834647080686832 0.005332780300016224 0.004453354675107839 0.013836149259364581 -0.004501636778692826 -0.023189103204321285 -0.023638425043836273 -0.0010429810304168877 0.007337216973898736 -0.002300312808880941 0.004268117787448148 0.020510194587944792 0.03650542659186168 0.011288915164195381 0.014255945558893372 0.011761043675734072 0.011565528133535823 -0.006278233422933369 0.0018694105367872281 0.01931461102482975 0.029715912796425187 0.04083523219408161 0.02469384580038583 0.04312753016924018 -0.029515429082519345 -0.012638434608167033 0.011495624589768603 0.01578166440551127 0.003498428100712346 0.0022662625578346992 0.009576678155196116 -0.010047360272297915 -0.030198681288950403 -0.055537696179514644 -0.0009466634304991087 0.010818280567541357 -0.00559749455851994 0.006179701309071656 0.010448450204867303 0.0016852653274404498 0.021407154557850597 0.013874371711692923 0.005568304785992965 0.004887575499075588 -0.0049785852244439 0.0028677885753918713 0.014909703219303764 0.025573311166298178 0.03902434077467897 0.02729145463762981 0.040071759551622343 0.007552960493682013 0.011441826056737022 0.003873002630074308 0.00502435546114627 -0.015253065307064287 -0.01790986807355715 -0.004452721741356576 -0.0021935466119332426 0.0060148629246136575 -0.06370882876351214 -0.0058696426816976476 0.0044406886321855426 -0.0074565238363699686 0.008783306967066258 0.010556601636765407 -0.0014809398445741202 0.018785580781849377 0.016656995760064 -0.028326726208501442 0.00832758504238849 -0.02126406346744283 -0.002798789824034088 -0.007547508807451957 0.004981952364761438 0.013206334001211326 0.01097701260726321 0.006526074046073788 -0.007151711183319982 0.010366288359363904 0.000707967889655914 0.0012028356168619636 -0.018358888110354046 -0.020793475063892362 -0.008716475522865778 -0.008537125518914617 -0.0009945621284659354 0.027029952872597057 0.0182526035033081 0.00861355937843197 -0.006195050127482532 -0.03533834116779726 -0.019611879665284958 0.003134642074738131 -0.01558324381197851 0.018404135735857512 -0.02615329536512626 0.009745315041870638 -0.016820517535403992 -0.0020978999040961437 -0.008066588012825828 0.0003485693326317267 0.009566392702684669 0.0077383150639255 0.004628401640679293 -0.033446061606989076 0.01797716440743589 0.019168327394386845 0.017534776304616143 0.012647235451342284 0.011136458281102598 -0.01495173092742763 -0.00998872484185256 -0.010149636130526883 0.03413399150374359 0.019770884707801684 0.016982950398774767 -0.004468626200870074 -0.03821431846471893 -0.019154908774742962 0.0070412988264346305 -0.006366822660957101 0.02008537625915674 -0.006088286704133155 -0.0008886764910593552 0.014516233140861598 0.010927447186711755 0.0036633800855524375 0.02546192221123392 0.024190290552625022 -0.009099906754879039 0.0013898450894122313 -0.029503517861921465 0.023845870058378876 0.025307992767076914 0.01822295276983628 0.011528536847318778 0.010919946493813592 -0.014381248409229287 -0.0044443637503283765 -0.012975612592131888 -0.029032534469828904 0.015957395665197587 0.024863640443736037 0.0033815204902109272 0.007605038449148558 -0.010294862048678306 -0.012140381991340848 -0.02318491131585283 0.003078255007648751 -0.0016095910016597089 -0.007715452429940919 0.015739287459131293 0.006889040034913627 -0.003125624202694724 0.018784213139385914 0.02428883010762427 8.999011514040066e-05 0.009897610399067825 -0.04472784203636917 -0.01006212934895957 0.009985077648020481 0.012876971445478363 0.010850737487737575 0.028799109218941396 0.02794561824808627 0.02189250338793888 -0.03634409661632789 -0.03441336961155511 0.012806223878768114 0.023227185256117635 0.006168628767015724 0.006576317987604617 -0.009970269615735106 -0.008103868172763857 -0.018588849723989442 0.0014851719084288438 -0.0035615854264086076 0.00012580181023055554 0.01325740621197234 0.0001521659219736109 -0.0003589495213825798 0.013724724746757738 0.012614703962664049 -0.011630040286634228 -0.02817274540743832 -0.04553743420473163 -0.007972788278505812 0.007316477748445143 0.009898957501594684 0.007380136696320934 0.025992748427070184 0.017270559515624048 -0.0003183361445746219 -0.04195600684710774 -0.027471397664890845 -0.0010900047866721505 -0.010023715949503666 -0.011751519378664454 -0.009802571886051407 -0.005558120645743355 0.009635460799045403 0.03856931660487953 -0.03406583214226626 -0.0018112136155227668 -0.008169094279471842 0.005005033303727051 -0.007780018011607855 -0.004297941472300334 0.004074909863573473 0.001688146374797973 -0.017008946593665496 -0.024897520491143275 0.027240587164188704 0.007233924879106472 0.002241721308880012 0.00793604397382959 -0.013178373561662609 -0.026782532126016303 -0.02460618779875721 -0.029300833365252 -0.014894991474808758 -0.006930744543119995 0.026301615250016546 0.005344768954322375 -0.004730157536148528 0.01916030580669335 0.028121415685298107 0.002607921804855998 0.01895815989339005 -0.0016470015697110597 -0.013461613910462215 -0.014624476311613226 0.010377419455664677 0.013216394340541374 0.008867102645162845 0.0065479832853234205 0.01737716671648646 0.005507721981052471 -0.010689686021880978 -0.03602380517771782 -0.007703513206488998 0.004601288877263511 -0.002848954785138207 0.011774241829097474 0.02183027025861231 0.018448266866964564 0.009279602486208915 -0.023501517140853273 0.015482433201476674 0.019410399457239533 0.00894078638008483 0.018663002360754265 0.005139072590887132 0.013761405111849782 0.00587150058319549 -0.04091952510861057 -0.0347773967770295 -0.022082500482889466 -0.014507107417415097 0.010121794925678027 0.012485836565715409 0.006333173613030429 0.005797240509477186 0.014446086808637997 0.0020573195963263934 -0.017084707441575427 -0.03771257002684065 0.002967784342068021 0.010370665964568487 -0.008297595428760378 0.00467727311368879 0.011860487319968737 0.006310978267653046 0.02888147477432415 0.024964074598679088 0.0082441515928769 0.008326792768699279 0.0027946517627062146 0.01934910957347925 0.008803163370545064 0.014164069207401517 0.001482100269889698 -0.042280757995962426 -0.04318914490504538 0.03455370958460415 0.027000483969531676 0.01686407907267553 -0.0051598838899935846 -0.025934115072411293 -0.021834651388375995 -0.002492186052374839 0.024260442160791762 0.04620661960468854 -0.05570894729273117 -0.010264218212434303 -0.00027013122210372154 -0.01193598473805111 0.0026057708284726393 0.0076006716725641865 -0.0020346903938447177 0.018853226471809023 0.018206681930207 -0.034647082950480905 0.0074740675103454534 -0.012076049595710233 -0.004908618923547119 -0.013707368935849775 -0.0012011391627623042 0.009927487677135558 0.011633312712156145 0.0008717289192240512 0.01603992320548602 0.01968200571443861 0.009723328595081768 -0.012756761352456292 -0.03095755603465152 -0.025045788613391805 -0.0040067419801739146 0.02040188797498885 0.041279141528656055 0.019048995073153177 0.026077829691053094 0.01684221237692272 0.01697830777340642 -0.0015430849978330008 0.005726493718452178 0.005226518790855053 -0.00961965635930601 -0.0006786516665364026 -0.042686835321561825 -0.0011316186576762392 -0.018339331706991414 -0.008180928617033007 -0.016871080303840668 -0.005314030601030154 0.007075974048955019 0.009746411133378903 -0.0016361842354062892 -0.025391404870441767 0.01591158260898027 0.012721953896540825 0.01098380323913453 0.005223837828220317 0.004464727473454557 -0.013901605570356999 -0.013526104747743456 -0.007244291819050746 0.01024700040993814 0.011935606593665653 0.006830607502610784 0.008735542731976298 -0.008088811472080003 -0.0013182227460528794 -0.000962342036480943 -0.016584443817475213 -0.00740770385476473 -0.0033413768334356 0.03368838978951873 0.02803180644793878 0.009362709901202767 -0.009427891609041434 -0.0005989506916803328 0.01311332901371282 0.0028138217118744736 -0.0005161710125939479 -0.025000703457456842 0.023111857782804744 0.019436369827979194 0.01458996698093054 0.008141265495764993 0.006379381359013111 -0.011575326613583679 -0.006656562521490894 -0.007908411388295268 -0.027679700618255122 0.011131397409284783 0.025587927625122707 0.0128269449175135 0.006142556643676736 -0.014643451640392276 -0.015174068746384335 -0.026281147065071345 0.003939935589084592 0.02860297754999588 0.031993355432645754 0.030339730427466367 0.011005573032537713 -0.009764633313839822 -0.0008864454923960072 0.012114448618629143 0.0003757807710195277 -0.001924792877819175 -0.015996400301924226 -0.0013424165679973542 0.009833487567195563 0.010555147096123913 0.006186480082016158 0.00641845135194267 -0.012523190219453379 -0.01251776154368243 -0.01759574263776989 -0.03862687421859408 0.0064033445123640766 0.0232906831000091 0.012793776991488152 0.006106552477738503 -0.01326006995663432 -0.009275724804136375 -0.015894273711994884 0.007411413874260461 -0.006600014937810185 0.0026865316809177864 0.01120832612532263 -0.0005705240399099258 -0.00016813990429605715 0.021518185702521963 0.02117851136144771 -0.010275042114727496 -0.030248386137567956 -0.004635339424211314 0.005717395754646438 0.007598991141406881 0.007013892207762111 0.00291273803202022 0.0031142164712071275 -0.012397676546054389 -0.009794465509990045 -0.014593709955646343 0.011546149894900186 0.0029673203109327182 0.0012413523286125409 -0.006455373190345523 -0.013539522594380427 -0.003392918078814865 -0.009582072707994466 0.015739255929079474 0.011542069005698275 -7.289778261144043e-05 -0.0013257122009097291 0.008055172549680141 -0.003939684500770314 -0.0009818880787947268 0.019150749544482232 0.021365635376826946 -0.004801263766900181 -0.016080194606655024 0.02638304713985624 0.004984337510367256 0.0036402215139601283 0.006300958681318522 -0.009714579103393814 -0.020301607138574013 -0.01283569729006582 -0.017741206527491497 -0.02821651743594773 0.004782560973856635 0.003214129881771844 0.0016817635035157549 -0.008802850010306106 -0.016702805902967962 -0.0038682480980159434 -0.006121775103441109 0.02054683530135988 0.014102738036946809 0.022972373518868675 0.016611356303782007 0.004259402885754576 -0.00908363336325511 -0.016333610662449028 -0.0056828795965399885 0.004645892258105536 -0.01718292737726699 -0.01037355860633281 -0.030018075820629632 -0.0017722090277871331 0.010136122749139592 0.0004495539452858913 0.018414576479287563 0.02923417728090924 0.02253722849474797 0.015945285057004623 -0.01769526824449253 0.023721239381916018 0.018469821412950355 0.009478736993254954 0.02018975469157006 0.00927976360493629 0.017542791204686853 0.011169901637067634 -0.02591182949881948 -0.02563495653199426 0.00493121369710387 0.004913820296151504 0.010954570105673274 -0.0003121348056611057 0.0006034536841370249 -0.008521236788998165 -0.006387392404109728 0.009295758676440785 -0.007737302073582527 0.04300980518393698 0.02782746862576474 0.0052234016905649975 -0.004233629242069997 -0.02304808019483564 -0.022074710124142104 -0.03182477432578728 -0.005194805762403115 -0.02099831883532301 0.010446484262633853 0.005499550327573639 0.00016680532418633377 0.014571887562349686 0.003336828587154103 0.008460094684248 0.0009082546024833328 -0.03390574490251497 -0.03748139372137674 0.03782291876341802 0.027476558742628433 0.012523617503393298 -0.0069988123095110375 -0.027197718422605592 -0.02569159039582311 -0.007926732064367002 0.01805820398735782 0.03607566763918065 0.006947997473187441 0.015225288433552468 -0.0005374046874506526 -0.006812188434102169 -0.02216981425477721 -0.02219813773330249 -0.03543423556763139 -0.013667865697713028 -0.02893412521145453 0.004176063014929031 0.02359246718995297 0.005945758949710765 0.008332209352061436 0.010216003841094837 0.0029181160328510744 0.00922628616942043 0.014092350084931633 0.03151033638586945 0.008934263849325726 0.01008779878197525 0.00383316802043047 -0.010938423715251847 -0.0300819471631826 -0.028027150307950378 -0.013158976634251614 0.007113091764109412 0.028438517760421833 -0.015118870323553659 0.01123133605877569 0.00421423007265832 0.008424674617917566 -0.0032766915851265106 -0.0029232868933484675 -0.0033902298223424366 -0.016748927112626825 -0.015484799332773852 -0.006248042562306627 0.01739352085490791 -0.0015409147336507435 0.006183509112731521 0.006103906573541178 -0.0007484145875135753 -0.0017273293723641609 -0.003433053603285904 0.018841824868851803 0.0040754488870920124 0.019844705614314683 0.00413008916979418 -0.0028788860901050027 -0.010700439784264184 -0.013553786522447325 0.01688822823591621 0.043981840626285636 0.04505880467956427 -0.009846085721517213 0.003495782918690327 -0.0015481497183590493 0.0030816211018413558 -0.00915829906533595 -0.008557177914723284 -0.008879476325045418 -0.025561189870567668 -0.02040634417767781 -0.0184698357201459 0.018377792394676785 0.012537995319916955 -0.0021075980100273067 -0.01536462317356754 -0.005538534421404014 0.002702314499301471 -0.009332676863797223 -0.013705513080019148 -0.013603677177277451 0.009502732509045974 -0.00011045852262035473 -0.006787270379912046 -0.015539007098662702 -0.019170002980982027 0.010603816519615774 0.03312357306254532 0.03184206590280486 0.0011514893715492802 0.053215646715634744 0.027796605166923272 0.00586018080398399 0.0022193673707533476 0.02261769859349938 0.02434614385814735 0.018245891146644516 0.015300718452922807 0.014651211666241669 0.013837921122972972 0.011731283491608487 0.00019753604460819583 -0.022337162108773647 -0.009907077230105987 -0.002769641965203382 -0.019482391889719175 -0.016792244091592603 -0.024441175260642 -0.005561791334809724 0.0030299456216056173 0.0032850383823157994 -0.0006744383668584298 0.0007815899416880031 -0.015985665988232603 -0.015772610055587603 -0.02223564400542583 0.023911381249911535 0.0606813817015832 0.02977699350027318 0.00237616771820227 0.001162156889154233 0.02461239630006971 0.02477456054347209 0.019604177675044656 0.012258205606398044 -0.014245585185275597 0.016691076026701612 0.013127938750280238 7.286994626951482e-05 -0.0186058585325014 -0.011703190030411531 -0.01359322930033209 -0.004311643923460158 0.01579447150431761 -0.004404282969959801 0.004141914735542282 0.004797369827874637 0.0018097450297912977 -0.004108265612076933 -0.00355758494997895 -0.01850997089192392 -0.013177873076431847 -0.016087279544236357 0.013413169882624958 -0.002021576613031789 -0.0020268470529153475 -0.010458122435618469 -0.016858576137733453 -0.011589125378044778 -0.01950110673210737 0.005848668083695438 -0.0012561602068030793 -0.013071020797188606 0.024620014629858786 0.022499301069779237 -0.002272882123600583 -0.018678643750158597 -0.010538101476233038 -0.01498376557477595 -0.0068514838799071534 0.010571481999169604 0.03594222604920338 0.007492000298105419 0.009398783185702878 0.0168848829615717 0.012285054141623486 0.006159108808627766 0.01339058023113119 -0.0008466971324780164 0.019385936765347073 0.0009160441296403115 -0.0018031320922803464 -0.0009739969394883775 -0.01099177267074147 -0.01838008992497513 -0.010885829155580787 -0.01731993712136774 0.008178648048543286 0.0011711110864247884 0.007239518116369926 0.00839253920636625 -0.001937059775487409 -0.015152585722696265 -0.026577441392459107 -0.0179738418929565 -0.002960926277328523 -0.033311492939178185 -0.022809599086498496 0.02703948982351743 0.005373503304903425 0.004218869952094811 0.012805453701255264 0.008233366237462281 0.002726132115765862 0.011148890086766242 0.002403440876875276 0.020437405207931473 0.04553881644484816 0.047806305568713604 0.01579591209466778 0.00360976312516067 -0.007431518166111428 -0.012424700148196046 -0.023097252987001972 -0.012650459597023447 0.010924871939428163 0.0016801691546587411 0.004823376749160931 0.013437827875436755 0.0031574720897837045 0.0029248077106704233 -0.005770996020743583 -0.0031269886175592596 0.011388686679731606 -0.010396860728757035 0.04333468076287157 0.028183967184612208 0.008967815580186318 -0.001951304244370604 -0.02104954247142099 -0.01781781131555592 -0.02400362739489386 0.001918129670426367 -0.015002970018303238 0.004730566236849381 -0.011072193556739463 0.016187034873231934 0.009754395506066106 0.0025924674732927147 -0.0015191393555805152 0.005563583333110642 0.02289379533105893 0.01397260281664645 0.014306836077064242 -0.00823482073240809 7.061928913230752e-05 -0.004413078356798271 -0.017185158603740872 -0.018202085956659602 -0.0026405855489074434 0.006668076215032466 -0.012717829676739564 0.013102504811217722 0.015984247869810054 -0.002051942871330577 -0.008104069015539646 -0.024355839089080907 -0.023980485308711625 -0.03414930215960683 -0.012022315003347505 -0.023169981962155122 0.002745767303113924 0.02151558782736106 0.002976363081392305 0.003385750584832453 0.007472245868195647 -0.0006172371058171006 0.0009680589577977293 0.00879263597960005 0.029624237678661784 -0.012509444846489717 -0.019423859089286198 -0.009789368335802198 -0.010384956280513044 -0.022243807552864703 -0.02734342470450825 -0.015713243108085414 -0.005778274032202586 -0.02499499229803586 0.024339616107060955 0.014174673956103714 0.024446436281014988 0.0244856674992375 0.0232483074567754 0.041432077069477956 0.031097734693999037 -0.005716787149440964 0.007814783666765907 -0.032600616307062624 0.00791349597823714 -0.005997893361269774 0.0002984637477236282 0.0010746997560991318 -0.007680787282716587 -0.015172887411313944 -0.01673236951213796 0.001168310014642283 -0.012709338410578636 0.01098437753864545 -0.0014183551978919433 -0.005894551426432214 -0.006877189228699521 -0.019349503635825445 0.008690395369100828 0.034225131973412905 0.030306030652413146 -0.023997298849554944 0.0019184565930852797 0.008482049674268969 0.01397271470335719 0.014507416015244112 0.02993117454882028 0.009203556194959566 -0.03328242739682617 -0.021648643431400563 0.04805726288251169 0.006321238085801565 -0.011597901901236931 -0.012171814897189966 -0.022724290132594662 -0.003931980112846197 0.007962746661525646 0.014434802800404267 0.006375848056768822 -0.03212011930441855 -0.002323998446588608 -0.01142420292390891 -0.013538055121142943 -0.015350978120998752 -0.03461883098876962 -0.005985464260369703 0.01668222321383521 0.009341107820585616 -0.02446557003464348 0.0284710873775051 0.011553485475029972 -0.007852095891534397 -0.010137729952042504 0.007905622266587866 0.009036223036627496 -0.0017879111197342096 -0.005496277615086141 0.024249499781120523 -0.008437101831533594 -0.021171336246363828 -0.019796129119525052 -0.030378418174304016 -0.011250239745962861 -0.0002532725652441053 0.005980400496669751 -0.008736055377835821 0.013583563078482687 0.008376377064485465 0.019981884030827207 0.016269591571593117 0.006648573580983287 0.0004383658105740283 0.012084777037103608 -0.0004842656486409005 0.0011253570573171792 -0.0161172105378332 0.02352027293580772 0.0036717986778421097 -0.015399513864752955 -0.017709601962002827 0.002633284351840278 0.005913370332210515 0.002034625382943682 -0.005697104693644118 -0.03763007736298973 -0.002958784613728615 0.005916685965751608 -0.007317318776189358 -0.019052259559152334 -0.022156959888333314 -0.025692684340265243 -0.014847618359732915 -0.0018151421815951851 0.029474693520773344 0.01580406677018619 0.017086635867760908 0.020803812230001238 0.007024721086362552 0.005494505515779005 0.024782388394761497 0.005351877302206153 0.024284557956907253 -0.01014540104767544 0.021653979014244307 0.020562280645771078 0.013610704919491573 -0.017924712639349107 -0.010249308105872972 -0.0025719024138864885 -0.004520386144979263 -0.007374276994036211 -0.0248665157703045 0.015177056175763627 0.017018370366422817 -0.006012807300865745 -0.0196829154087947 -0.014751728066190729 -0.018045891017343642 -0.008656364719956414 0.005464553257924408 0.019215386638534254 0.00049485505708361 -0.0018400048794613016 0.0076280394144193275 0.0009028640434437115 -0.00978734872569702 0.00037159824794873067 -0.014618639733423778 0.0018823393878117075 0.026348805531671075 0.024465811235836986 0.030240413812266508 0.014744762034379744 -0.018522538664467292 -0.00912559728609608 0.0003630118101402615 0.0007305564561101217 -0.001320457245206757 0.003869110560746244 0.018214251968557856 0.019187921840479197 0.023544413129130644 0.017940863740180536 0.0005868227649036168 -0.001990373699746172 0.0019076767908974464 0.0249119453799755 0.011963572727823654 -0.0005725698941453845 -0.0036444005385571523 0.006980962709696148 0.0005359245657808227 -0.010936348398535727 -0.0010997024247231739 -0.011960946907067796 0.007598287970383412 0.026909874812255593 0.03920431308662559 0.010943553345348054 -0.0016456814557449916 -0.013952412793981352 -0.01918867293253771 -0.031037851672951054 -0.02530012044293463 0.0003833015266242358 -0.007547243416434665 0.018040266422689653 0.01768812860703182 0.022596371852010484 0.018742400491651465 0.0031220650757991077 -0.0009162983353867391 0.0015467980837785005 0.027654317030837375 0.0447604624607151 0.02524363267111364 -0.0017354071334207634 -0.010785027153499388 -0.036321268683171516 -0.03418939535990783 -0.012431443411861904 0.0015318200906719068 -0.0033300738892295036 -0.0032993886140928906 -0.014822781669405672 0.009859444066235437 0.005459066742749161 -0.005491850286029554 -0.0072779593691376975 0.002038603854099342 0.011430102774947354 0.004269131475143782 0.01205017310076395 -0.006267643476774317 -0.0030603584193370057 -0.009799700220915915 -0.02259185302888385 -0.022794728385523357 -0.006241348212774917 0.002900878894725765 -0.01095479402193817 0.013730889026491933 -0.018748424088744567 -0.0043003205646086696 -0.009581465222102521 -0.02724280150990325 -0.014351569421901468 0.023854955274368955 0.026401696394297108 -0.011346867300795769 -0.014045376583429426 0.026639779431192334 0.01092907084770651 0.008678766634970228 -0.0024730555427704224 -0.01220748635043228 0.005620880611740898 0.03285314352472106 0.013492128329709387 -0.008592897852756071 -0.016066379207103673 -0.010811866085036679 -0.014336957963357204 -0.02298766318414944 -0.02721198951130559 -0.022164806620936943 -0.016466612368291448 -0.027510440837856268 0.01464330980932928 0.011998720207054 0.01602883954495956 0.013038806686378072 0.00395793741789646 0.017962463084637222 0.019036843845097597 -0.004320798565498101 0.010356078388033587 -0.03728141412851256 0.005495691927660795 0.0024125464897247267 -0.00037809151329794847 -0.0046312127407060425 -0.016785632008038252 -0.002108250256814744 0.01457003552941948 -0.002451401309194311 0.05192767752206176 0.0505030369313039 0.003961256279917027 -0.0024321892337653924 -0.0042584675359304235 0.006049537307672725 0.012100373361116107 0.0006923053553581297 0.012909993815184423 -0.03119011313752008 -0.005177702608861884 -0.003801140379750237 0.00017363255392490698 -0.0037557808318214535 0.00426020740255877 0.000297531525788869 -0.02903776868254349 -0.013769086178455995 0.035882501081475025 -0.00023641359197665863 -0.012604989564174046 -0.012188121579022881 -0.020314521919973096 -0.012771655621635656 -0.0014708310585242201 0.00461116040147437 0.01657958481776536 -0.008784755010078742 0.021341145903211938 -0.014523019969092856 -0.012626944227117288 -0.01157125286169682 -0.010881805993463731 -0.00996645390090085 -0.031509353455607916 -0.02719511289660055 0.05643323763693395 0.012861592378051382 -0.03315465762366069 -0.04209952067833246 -0.007043411477826597 0.019460927211245517 0.03300496730341705 -0.008941470920552398 0.01752512249469479 0.009624853487466908 -0.016522407529514494 -0.021358673832425464 -0.017102057214224767 -0.024969591897503307 -0.017363051808653523 -0.010355857046783504 -0.01013616870622171 -0.005025863220246207 -0.01140969999897368 -0.015151736707828899 0.0015574207831723372 0.002503097854152264 0.004572695426132922 -0.0015459771825384254 0.000892390232974101 -0.016027305834132203 -0.019231333466340116 0.020968007385899008 0.004892503090704173 -0.03599981098679297 -0.04950093892581844 -0.009687556187142605 0.014433332277415948 0.016295209672852248 -0.023684929977441854 -0.00025767869766652016 -0.0042536823433127 -0.01685791387561335 -0.027456375794325496 -0.020485233582726296 -0.026535788951325426 -0.007044608192517466 0.00937280830013457 0.024444556474361796 0.042994582299420624 -0.0006689166369371881 0.003613142316024537 0.00840244901225091 0.012634615087470902 0.004996370152943312 -0.0005151838239474771 0.0037565716694546152 -0.01757741891217213 -0.009067746961726993 -0.021778768878945465 -0.002755946472322127 0.0036821580429835035 0.002254148081262119 -0.01709089938195918 -0.00930131333486911 -0.0054815881315539786 -0.01283057796190579 -0.021691746944484152 0.014870589043727836 -0.012800194015941482 -0.03077057176365314 -0.01867778782108241 -0.03149738475664396 0.001889697545302882 0.008843831202543272 0.021286181530056673 0.04350283842750514 -0.020113070597461737 0.006354867321176728 0.013612966520129027 0.006194882763403986 -0.0025230224277861474 0.0038157135803758915 -0.0080015705165271 -0.024033520410677727 -0.02610975263399904 -0.0017745455674358216 0.017925551504821075 0.01746338970075068 0.003380912968740313 -0.027613094720867055 -0.010928327670210226 0.0001920145201774261 -0.0048575573785008186 -0.013124744601448085 -0.014539768892604612 0.010270588137914276 0.012030425502196733 0.017448957531974507 0.008390887322225244 -0.006665630390001123 -0.00808396861893225 -0.0018487799058172108 0.015938439613994947 -0.0028873199983857735 0.024335037665647728 0.01461379862336899 0.009389199198607477 0.0013726313066322578 0.009098480162586438 -0.0034900019885595194 -0.016030717753328386 0.010778970171298707 -0.0042545178298271065 -0.01934550673449989 -0.01593150825952036 -0.003920954900614728 -0.005563690550529152 -0.007848397710333318 -0.015412297105428283 -0.020284509832179526 -0.004827602911391218 0.001677346111492407 0.021142874522489568 0.02445745078678455 0.02837490333347576 0.02064821877485319 0.005953732394365826 0.00018416591270953747 0.006080146286656753 0.027629954858968558 0.046621019964326535 0.02936175944461665 0.0057818475445728735 -0.004927505501434237 -0.028019286081755135 -0.027095171153084647 -0.009103691710601594 0.0038692990132596053 0.0014287722381335697 0.01778684187964851 -0.004357516681604578 -0.006526999769001262 0.0012364621497093459 0.003060023076817814 -0.0019247727662328623 -0.01441502308460848 -0.019513235968118766 0.0015682094210636055 -0.03127249103938117 -0.0020218390304446486 0.007026072483456073 0.009134388831443798 -0.014917620687769868 -0.020629734984825357 -0.012821015409830824 -0.022252548084355454 -0.02155480106067574 0.003396889105650275 -0.019111591512734453 -0.008704536966689142 -0.01385467387688186 -0.03250167694863448 -0.02371649454103391 0.009475579143416247 0.005937715668430087 -0.02242803549968059 -0.02173316465746606 0.02512887425040578 0.0074556018627626 0.0037205280459503354 -0.011679584092812062 -0.018093565560513093 -0.0020266253361554266 0.02390613880076854 0.008818305071150284 0.010354383311394735 -0.0256065481874677 -0.010154960782553854 -0.019477124718328007 -0.017698356829497122 -0.014564667026435942 -0.012187739073680334 -0.01192896974257993 -0.029708086813766982 0.00035902454867195097 0.0004317089457310032 0.002148159969430937 0.00019267579344041654 0.025967421507986265 0.03703312561535492 0.008964439951134237 0.004824362379271717 -0.00784143371229371 -0.04961092460085266 -0.00013908396390957203 0.0011145904723682983 0.0015252359845918226 -0.007280421740780449 -0.012676271175127814 -0.003596144897387617 0.007110664124812709 0.001371613705622432 0.01784530225084463 0.021799407268370576 1.656546298595932e-06 0.006856873868676167 0.0004949708530969965 0.010135856911054002 0.010720123700609931 -0.0030170716532294255 0.000769879633432276 -0.010309712734873126 -0.01064381930216414 -0.005804382544997187 0.0011516694626695404 0.014844201300827057 0.026087396132414457 0.007105079188715346 -0.007871662878771184 -0.014640157326250567 -0.007157361384849643 0.017527889207804848 0.012290557856807318 0.001535421501372887 0.005363057238836161 0.023161200268798518 -0.01574291158253547 -0.02936622921983289 -0.016689932810546617 -0.018391659488012854 0.00441101349178879 -0.008204647236972645 -0.0031515815692996383 -0.005336592073949101 -0.005912811576264739 -0.005960636329559852 -0.01812290881402373 -0.009580926529795985 0.02830448289356989 0.010256334916011365 -0.024139239099201626 -0.023114327057746874 -0.007754370084004153 0.012303353924016904 0.02432817180773083 -0.012097161213938768 0.013216612682912438 -0.03844245580822853 -0.007036585849894583 -0.0035257753042388933 -0.00826094029048719 0.005098938602959317 0.01957201943381882 -0.014158957780386018 -0.03174925259951675 -0.03143420133456516 0.01863845684547426 -0.023263397565094542 -0.05756454474987166 -0.03992755398591178 -0.020982333996028744 0.0037768039140554394 0.004613221216151107 -0.0010121344522340152 0.0013537672980985555 0.0018642618751261368 0.007717998503632228 -0.024437864657209617 -0.028579620627779734 -0.008164062462144102 0.008965186552374521 0.010084386588096407 -0.01703730925176765 0.00043826364197877476 -0.01977052144857011 -0.02698811412111135 -0.024293261064220976 -0.014336504957226914 -0.013433856822599113 -0.0016644568682235759 0.008080984793831887 0.0006414922241429784 0.012808467027903241 0.016790111080913116 -0.013614337871292388 -0.049694042896978416 -0.04042172431162751 -0.020897856762372855 0.006761431850347374 -6.521448043687303e-05 -0.01904362378305708 -0.010710311132542994 0.03381623032028608 -0.004508913941087583 -0.032597589326953266 -0.020093149490908565 -0.025792226368483127 -0.014982688478661696 -0.008174540915895239 -0.025409638262403434 0.018175112986219658 -0.002914092228657535 -0.019914385335754327 -0.0316122277263145 -0.014477403074467715 -0.015021078604940343 0.00026977956043366654 0.007724966030881554 0.009488276407039444 0.018538703202610148 -0.039600805958134706 -0.003117930319903458 0.009727227347336088 0.007692799864714483 0.001134794498851011 0.001452040988475519 -0.00759950819750563 -0.018534674829280243 -0.021950455883208413 0.05740308166820862 0.008787419910912548 -0.019799226066582656 -0.019687577815768596 -0.02342816484186602 -0.012997888373549421 -0.006255165957551651 -0.041051561340011505 0.031879743063649026 -0.04045952328186229 -0.01366534436211139 -0.008549687002998437 -0.016814452844277978 0.002493358235248539 0.019386092478684454 0.020703924039779328 0.004986051668635648 -0.003415697910322696 -0.0158699510463125 0.01391387622614463 0.01152663492540293 0.0024953219537708444 0.0009589921138551726 0.009237232936247062 -0.000623028898703498 -0.00893751269488922 0.0006941244445728456 0.0037200429334774627 -0.017988145127781376 -0.012244671505162485 0.0003801915257072823 -0.0019529745548380027 -0.004798476472460987 -0.011732998119074776 -0.017986145350803916 -0.006334638683561764 -0.019092117586570933 -0.01620683073983606 -0.009326383981562861 -0.02405427134395674 0.006325359427752467 0.028891690129803627 0.031087828871244644 0.012918766245555813 0.020990676860365938 -0.003089697922866853 -0.015778358454689053 -0.0095011456095782 -0.010766481284309461 -0.023652818232432322 -0.01803062077049757 -0.016570959296562476 -0.01806302744337356 -0.020534373903810754 0.0297374388577372 -0.00230756742590361 -0.00031386499791079335 0.00942795498402638 0.00928214211103648 0.0031431836343656957 -0.008829738603898045 -0.014758795481745645 0.004258497651273481 -0.029968237752133604 -0.0018030839420376372 0.010507844409939394 0.01312051384076548 -0.008666472793417791 -0.01497435636403651 -0.00782868932983178 -0.018146555334604977 -0.02077931180036464 0.03611992959246397 -0.010196382615281085 0.0002769296590903242 -0.0008396647192776024 -0.012665089033617162 -0.00964682318651205 -0.008507668392597726 -0.0035275187253490776 -0.006867149158853385 -0.005985182858580784 0.021902970680290363 0.02948709245207894 0.0046155377266224006 -0.006881876237306014 -0.014165604059838155 -0.004151275210412774 -0.00611645921189902 -0.007213873338941441 -0.0006314124321608746 -0.025108019561864828 -0.008852321965963113 -0.01929094207129123 -0.023624901185107558 -0.021289491442430822 -0.017023262517992205 -0.02220101771253997 -0.044672946499767545 -0.02045896048977458 -0.011099987434403477 -0.006010488531205447 -0.005378099230935257 0.012041432780424497 0.018906043363915645 0.0033632005003797084 0.00010465901062364116 -0.015798487074870304 -0.03981020168811013 -0.006227662289859239 -0.0038760118569267227 -0.011388345150083103 -0.01600503154409898 -0.010140548918315897 -0.0031944519761783574 0.00617002432873175 0.014764875492990664 0.04591184760802366 0.022298233624205514 -0.008096398596872827 -0.00981645572733226 0.012704918786342691 0.019882194921824185 -0.00286559270442901 0.008037702989021558 -0.0018245286399851326 -0.02444814153562913 -0.012612758882873314 -0.00956535723843077 -0.0030540145104357265 0.006030195680183451 0.012584806563042821 0.01020609802882899 0.0024226678183254698 -0.0006434806774579823 -0.020210846344013367 0.020332476132955805 0.010218088152515984 0.0008684747945665045 -0.001986476137195777 0.005683148031460096 -0.016484096743143016 -0.03462903248048786 -0.03547569971695743 -0.009149902358964236 0.00792684818028352 -0.008003915078631572 -0.011835253820491087 -0.0031836308179257846 0.0052902551404794725 -0.004221748701217027 -0.001204711400091954 -9.564975430513407e-05 0.008633570248535678 0.037497038427571974 -0.00457828424791465 -0.01605083085452414 0.016266700910254193 0.04153258890640205 -0.019840921976048448 -0.03762067033505961 -0.07123499635951136 -0.017152073853060012 0.009683292331047701 0.0016839408824499034 -0.0041873907344841775 0.0004669466617238971 0.00970752260055651 -0.0032375904410072865 -0.015826047321547226 -0.023229870434715475 0.03476513917217371 -0.01173526229640487 -0.040709764107479215 -0.031788359635304214 -0.016639046604915404 0.012886849194391448 0.00503388472634201 -0.005473145684165536 0.011213965098062344 0.0006898319934680694 0.015101010820854731 -0.003407191872267335 -0.008700132857452428 0.008465969014479113 0.0204071472156917 -0.014535414105125578 -0.020877219278004157 -0.0390482653753253 0.031490795040334724 -0.04803849492714593 -0.06607844870663161 -0.07081310974650394 -0.020660844131909707 0.013717772793889837 -0.004143110113270647 -0.06683733261269977 -0.044203220415624724 0.024422516746642465 0.011198401966309324 -0.031490817282940294 -0.028643507101745035 -0.017494389257519748 -0.0003040411664923389 -0.0024866792040630302 -0.01872925421924705 0.00031546252149817854 0.03188466208002069 0.00464908645805456 -0.009881419507368934 -0.005402342345988374 -0.0027286248986757126 0.010627676698470187 0.00686738727124326 -0.023346646703479693 0.020451775523910302 0.03449518780490508 -0.0407488035913621 -0.05345365383750202 -0.07431633062723841 -0.022289653386642534 0.014165011135054301 -0.000732535133024683 -0.05132154736905028 -0.022140633947663874 0.014710952225740597 -0.023130571402719288 -0.03912574262469141 -0.04553754036290371 -0.02921394299848425 -0.01684043698852565 -0.023616176759973725 -0.07175872218633275 -0.018951238127824364 0.029176506026420725 0.008690961395440837 -0.008627560640123847 -0.017264173545925354 -0.0097203478105502 -0.0016950011541872311 -0.008395483231547797 -0.050507535272524155 -0.0043974780672099215 -0.026653890306791633 -0.007992903076843187 -0.012162875153541098 -0.020235870913736676 -0.013539611921238839 0.007747339094594288 0.010180839004712427 -0.0025051740859764484 0.0009085580888399853 0.041110449212871845 -0.018146196347893 -0.04494259037205144 -0.07027890215567402 -0.05509095995926769 -0.021100321016679836 -0.013279965546113657 -0.08222468852847777 0.0018949488260124655 -0.02434977906624678 -0.03133335145088364 -0.007070055680527088 0.020467844367299405 0.01602092558761736 0.0019197189647848516 -0.0036064624507557166 -0.003392235807861213 0.00819268566021752 -0.012748854830810981 -0.013895025506194968 -0.015705990604123834 -0.03378754263275931 -0.0116603610765979 0.015920798871320994 0.019788815161099104 0.007640115712111328 0.015942125673830063 0.0014815551897347386 -0.017585292205589867 -0.01716864122208476 -0.013439302026890646 -0.019555882137937654 -0.01743620088880988 -0.016624820624167525 -0.020553142558437456 -0.018894334906825933 -0.0029692511680123926 -0.04403668532902077 -0.005421243241854645 0.021701353021674096 0.017910925981078837 0.006103019239306303 0.0069766958996720545 0.0045782185604218905 0.0072722325117590214 -0.0066097424162676706 -0.006576484799666682 -0.005670011617797297 -0.022575016489579658 -0.02569971607870225 -0.03089862339262774 -0.006827095178217057 -0.0005709588506295697 0.017129032479573418 0.036910443071818205 -0.009446135387955551 -0.005598903516015806 -0.002253215771829745 -0.010785905900055055 -0.011701722536306962 -0.01122822028992554 -0.007517107977069316 -0.009928205068358746 -0.006609950446397826 0.019330942433073803 0.026741006019195167 0.005885799902806199 -0.007101977336815389 -0.012049302930928775 -0.0018752355965582941 -0.003023880274205676 -0.004586857445145517 0.008081808500380233 0.0038837044439705326 0.003966750514986653 -0.014777277448563808 -0.01449910154341338 -0.012426143634745325 0.016674501497751577 0.022667867382201716 0.0392085653381587 0.019271181418978583 -0.006634905903916828 -0.014544386045415473 -0.014195106204665943 -0.0071870625288949505 -0.006436445490752262 -0.009791190338513224 -0.025391077512764267 -0.01338965452992908 -0.05419488847102657 -0.010941154280950703 -0.007387188986228959 -0.011678703940515092 -0.01770544877467511 -0.012781809636809525 -0.006112099694092221 0.003149064729272953 0.01322424855983029 0.034384931907027814 0.01730111237180166 -0.00936292785922229 -0.010877770843127542 0.010425244112527852 0.025068695259471765 0.0025771413812184277 0.013875643680982257 0.0004440777212580483 -0.024575444946432868 -0.02178574581509273 -0.0036331457854176723 -2.3292432441304235e-05 -0.010343820657873032 -0.025192507530623947 -0.021591946318885377 -0.01463000897555221 -0.02106504101402997 0.0012823193231750562 0.006603851902012387 -0.00891209720190537 -0.0259727607880434 -0.007698003436074568 0.014649841567148008 0.009736029565444188 0.010861327655727485 0.011100710121501493 -0.0022794917754511237 0.009008303374802813 -0.012949084166545888 -0.0161137960694924 -0.007207377765760505 0.0035658576448664137 0.0017103141290799727 0.009958631635473796 0.008683300896530842 0.0022931172136203214 0.03734048320616986 -0.0024719399631700834 -0.016991802541861275 0.008819011415349975 0.04378498812543561 -0.023878529580272544 -0.03655235313079986 -0.07001556856131934 -0.02717528592508961 0.009007355925143373 -0.011289868141941528 -0.022832363636342803 -0.011186345998564055 0.0037730892707626843 0.004369456909720151 -0.007656660454210561 -0.005728275952281554 -0.002457410302006281 0.025266016520140926 0.017066288414672053 0.026073984145435245 0.03257790256415692 0.012266567550663028 -0.006699473395852925 -0.012293471096169782 -0.030434320753292755 0.005476189696618765 0.02294109965503722 -0.003912256691533537 -0.015659088869818455 -0.001282152285758818 0.01638172762610563 -0.024860894302599957 -0.026320452920801027 -0.037263165464173686 0.05413187567897048 -0.030148336197182046 -0.03520229524594232 -0.05571329143882796 -0.015935820856254213 0.02387138359277097 0.0015926709927132447 -0.055452849921267935 -0.021518594789406743 -0.0035155043810518637 0.008106967087518744 0.006774933397306326 0.009949878431272208 0.014444774538167098 -0.002064448284904447 -0.009787987801276285 -0.01282144623669514 -0.023993045958976552 0.0012547927483214224 0.038605050069556786 0.014435831299299534 -0.008160157675235485 -0.02548581691655189 0.002256594051707561 -0.01229602023029005 -0.053173112114250035 -0.046101231724555436 0.05271897092190446 -0.031125000977503856 -0.0356426733587049 -0.06834692931806034 -0.019277750014307253 0.014317298149679632 -0.008237586010549153 -0.04623702661304074 -0.004719800622339294 0.036762640498729786 -0.009272207471840984 -0.024294681116068084 -0.030953747127973278 -0.027232962707364732 -0.004994543954522597 -0.0034809687785321967 -0.04492847881621499 -0.0004851435970784532 0.0024364372889135143 0.03675544398602116 0.010954023669649801 -0.014311242321850503 -0.038089628508342625 -0.006570325228245492 -0.01385939392475457 -0.04249334084319744 -0.021507143049329058 -0.01403074918505626 -0.03671390106219342 -0.012509263910075355 -0.016342911626706928 0.021617505194559208 0.021966387396820147 0.0129218625885902 -0.009456190270316685 -0.008423039587892322 0.04964315989354769 -0.006454340849225202 -0.02778680282573546 -0.05446226910645348 -0.052131171019160615 -0.016226494092672263 -0.006358741914268946 -0.07063382929430514 -0.0015102326469046367 -0.011988020176277413 -0.028885424418343332 -0.005402502711763864 0.007747595718855621 0.010365366063694328 -0.004285701709999132 -0.0013574717171670242 0.003555980837993612 0.009381297438813514 -0.014980825037828972 -0.018206630616052273 -0.007595324895409914 -0.030396839017533966 0.00372991277741806 0.022052589743496033 0.011604620994255624 -0.007599264460212581 -0.009647303524608205 0.004056066262615184 -0.014895029775512795 -0.01978525210522484 0.005876393259464701 0.01356452212948118 -0.008772684175109742 -0.014785759222207085 -0.012332188748221274 0.00012542955440874453 -0.005540205580926515 -0.04919293721235614 -0.011123263477612694 0.003741020376301866 0.00935090223493067 0.0005875951990585397 0.0067347514908265 0.0034922988245565836 1.803008740706676e-05 -0.01124102474806389 -0.003551401072169962 -0.004003077513193608 -0.02282031734193233 -0.02491077646587079 -0.023164206810671415 -0.008856701712547668 -0.0023540767587717903 0.01384436151249514 0.032241961034700936 -0.00044050577639196667 -0.02315080921133556 0.004573007412654048 0.020300908674989106 0.00037262027303025665 -0.013358672974084825 -0.015034904305308738 0.0038857681232543967 0.0018426721477001846 -0.015944149940817887 -0.025524337233778928 -0.03873357137240581 -0.014914772161831756 -0.0035872459411768563 0.009831340795837864 0.0002567287061012748 -0.003929805397378763 0.003035494798154646 0.005087596193404671 -5.876324408283953e-05 -0.018338974438675774 -0.015315408326347682 -0.00828074826908852 0.011038776650016286 0.018163234017557973 0.03506692803614927 0.020092238801237536 -0.006574255347779966 -0.015428676115961132 -0.009226139045584923 -0.00040849349557112576 0.0008850591450529858 -0.005427542633734756 -0.018721337830950934 -0.012204486790830839 0.023150391592314894 0.0005739930190672528 -0.01155738485446313 -0.03395406288204977 -0.006841447253226255 0.008533226986914078 0.035795983785911104 0.026365414765418333 0.013308115180870281 0.025821336394177868 -0.01516457454953777 -0.018980868922488063 -0.024095016721352353 -0.029632914813264313 -0.023769174035298195 -0.01154116237030326 -0.005181256572698015 -0.0036496999759228262 -0.030257303064447034 -0.02368818055252955 -0.0007284455733247878 0.0009273086607715749 -0.007711163655503034 -0.02328296628402706 -0.01727274874630691 -0.00954468540170601 -0.014650520080705528 0.007822337710674096 0.012673244882851617 -0.008780808411325091 -0.025881839580234513 -0.009214533413765234 0.015773941813135416 0.019017341311154515 0.031247333059136326 0.03295257924316048 -0.01645795275141933 -0.002145211961766078 -0.013273318682101718 -0.0116598994387261 -0.016319308117371374 -0.02632059992610355 -0.0004238096418440072 -0.004446999334084925 -0.0026329943581215104 0.05367136122757733 0.01054216860274983 -0.013828188604224176 -0.023356530821114423 -0.03522228751991402 -0.023771194454317163 0.0026889439751739785 0.04142340047344811 0.040796560036049964 -0.026596378096974967 0.00923572195983188 -0.015242427305019067 -0.02679457138387258 -0.010914305777748035 0.0067621258962517975 0.003138568993935428 -0.0020095043408244386 0.00620987684273406 0.0007998546203052472 0.02849449630156209 0.006625312169575078 0.01823632221804303 0.03958959560706163 0.024968970832577726 0.006905309768774235 -0.007788837160063741 -0.027087451707269127 0.012697331260170518 0.007466054380713723 -0.012076018087121889 -0.029721504102107325 -0.04154890294069094 -0.03217084515303805 -0.023005057298511336 -0.0011490151548503046 -0.008628724810815034 0.007755627367795461 0.06469006136574143 0.017711087741585335 -0.001182952266018446 0.004823107916558626 0.00016505527793175248 0.00024378909657800233 -0.00496180424849559 0.005129666852015048 0.0008860255611984392 0.012192663568636828 0.003915835471314837 0.009679085671398222 0.016124568765381243 -0.0028596234793583346 -0.013195081395100833 -0.02078748988861348 -0.027307368878194918 0.007986692375215878 0.030177823896036234 0.009589488516404196 -0.019339302332071606 -0.05104213727534548 0.002841073135454763 0.0026378261043682994 -0.04415627979341356 -0.02373779980892742 -0.01910436305527107 0.03515447787257801 0.008654654905466257 -0.006417584113142711 -0.001964930557662034 -0.010991850926313 -0.012386852072095528 -0.017833436276751442 -0.009200229476700064 0.04247760010678282 0.05515614154156164 0.010390607755102933 -0.00042364269238139815 0.0035096927620061214 -0.014419632670321782 -0.011834734345201587 -0.023046125738161463 -0.010414915951349045 0.000417882870310805 0.03287940177382114 0.008419271195334617 -0.02973149990054554 -0.07492851297317406 -0.027088902479980175 -0.018569045992557345 -0.04826580763415083 -0.015250853584739654 0.004747706271191433 -0.03527546833035949 -0.019595977253235725 -0.035270058364024304 0.0008889363794049531 0.015236341852102457 0.021290342290644075 -0.013166261828632163 -0.010814744945373912 0.03273038674028651 0.04774430328828483 0.003399141366518529 -0.007644904281393777 -0.005843031317760455 -0.018650441340603674 -0.013281345993645558 -0.022596262669521253 -0.00958882103670714 -0.031130966072942065 -0.010791859558262895 -0.01668756204829106 -0.006110408391281873 -0.006887735519734848 -0.009625062780242446 -0.016861088373580985 0.005866168201689299 0.004917761707949906 0.004799940468640883 -0.009638444889555344 -0.013856789617348795 -0.04665187703212093 -0.012205617182800638 0.020691690697015565 0.022888212798296604 -0.007648311232341125 -0.007248612799150716 0.011025794102650798 -0.005804701397670372 -0.01730133523352209 0.01682950468025472 0.01609959280462661 -0.0017005946703929785 -0.016610751132812174 -0.01357769461417126 0.008190891720787267 -0.025963505055620666 -0.009949999822852173 -0.011517434922286539 0.0027758946812627685 -0.00985119951488625 -0.007949043452707747 -0.008555342959036536 0.017230676798125497 0.015403999420002033 -0.05244123734381793 -0.04896258790460013 -0.0033396817708667243 -0.003004241498018351 -0.00974504987923609 -0.025460415222096064 -0.010815502515638427 -0.010113994657785232 -0.004750153216433011 0.030530382779581776 0.007262402579423455 -0.01726180833101165 0.019364276437039356 0.02715744067992467 0.012190464201008491 -0.008371910193954741 -0.011655597163899835 0.0100425065290375 -0.0027400045905185636 -0.01648993782178107 -0.019658923508998997 -0.036362348244477406 -0.0139453560450599 0.0003130694407418914 0.010006295716293632 0.0006666746105787003 -0.0040496445066016224 -0.01917315332844601 -0.028895080960309207 0.008755724453303224 -0.0016047136944988838 -0.0023724123181247713 -0.02197461422761953 -0.0015584697132639976 0.0023405649301182652 0.022263163162152752 -0.028076687091264332 -0.0010382488850292579 -0.003326597087347634 -0.015467591551872988 -0.019717327107048155 -0.030617781326381408 -0.016858595639129077 0.002268218621881998 -0.003987695841105238 0.016035244769856728 -0.002937528082264007 -0.007887275624870368 -0.025781903301961978 -0.0017764720571217243 0.015638658770307932 0.03570680067452867 0.024553125900872903 0.011071496625651104 0.027948090631758776 -0.020251217885708685 -0.018566783295189706 -0.020145744571850286 -0.02461187818048744 -0.019928361540776533 -0.009885381939798746 -0.002525404014761177 -0.0006956011724846786 -0.012860441344592825 0.005089683876407818 0.008811294924551329 -0.0043746399163468635 -0.009806009960040768 -0.02111779950764339 -0.006065788905364208 0.017331562851384055 0.008703033512510623 -0.025071327584840018 -0.044404616763842206 -0.006272299874168873 -0.0018428994407723271 -0.013877716727098739 0.0020134911577167937 0.013076126223320534 0.01572007880136501 0.002725342614292003 -0.005482756293577402 0.0007094211737879521 -0.007981977250003896 -0.007559885417814042 -0.007814972232317747 -0.01334793364657248 0.006573924938310378 0.008141076048746906 0.012587865745521827 0.05712487246841342 0.010524975413835786 -0.010349652737292055 -0.015879692473428946 -0.025765241769865457 -0.012413259404048417 0.013260745026611178 0.05290911290190782 0.048283462182616185 -0.01754291448123504 0.002751139813094717 0.009590803585633564 0.019576580363704823 0.0005527883981742724 -0.01674320244105677 -0.021216032488068807 -0.029933061641869388 -0.02016316296141133 0.004811265841002722 -0.02060566404368916 -0.003955578917459963 -0.014758680804327216 -0.006659241155680618 -0.022970327569914566 0.0018061903077760402 0.005824731395770633 0.00034849574812143946 0.038141675524478405 0.01159176322308446 -0.008254896517528445 -0.019418592049530795 -0.033956710677259264 -0.02171326408934688 -0.006605345877357312 0.025182221181183306 0.017708120010010618 0.03830619285932738 0.06820115045975432 0.02986668555977147 0.011372407269331246 0.020143130904169648 0.017485202436220697 0.013490895952533477 0.0080716782018517 0.018332397680438164 -0.017141729760129884 -0.02978961998577887 -0.008737668390920343 -0.01851340643365399 -0.011758133134125682 -0.02962391474874838 -0.013865313812536854 -0.013083496229298983 -0.027035870074668143 -0.015075441586086289 0.008390749133305392 0.023123375214112164 0.01699186613412588 0.010804104102076655 -0.010575016048375728 -0.03129983969418729 -0.0226119719379997 -0.007441940643022364 -0.004140045214127162 0.04089059077095324 0.01532746708894631 -0.0014110229473742026 0.00400280231904895 0.003082571363409054 -0.0004246539139864706 -0.007322796279359394 0.003139818067877965 0.04619112225480312 0.049451644916478084 0.018657104975177436 -0.0003927594941929777 0.014164621318757427 -0.01559921424364044 -0.01569427101559168 -0.027153031085725664 -0.0038651247179445998 -0.02697886089138024 -0.0013180239349709381 0.0010398425350206324 0.002513849466096978 -0.0052625093275231035 -0.023721293281111985 -0.034663300677533815 -0.03498168821303772 -0.02266336224287109 0.015367052273272426 0.00680090319436298 -0.0204142800808546 -0.022706795807860492 -0.019828416827522115 -0.023190228770474552 -0.03023387810035969 -0.027238327753596733 -0.0068068160748868825 0.03693559747621984 0.058803557391520336 0.01421674536046847 -0.006854982768383154 0.002862198702057242 -0.019507212698064644 -0.015043743459723227 -0.024612920057810087 -0.010359891218903761 -0.02898485569621149 -0.021663240092649465 -0.03729230211545951 -0.00793499575966114 -0.01308006898032452 -0.008642343063334397 -0.005504134259237066 0.01976270683024665 0.010197575405082236 0.009671812298898064 -0.014027145424836459 -0.02011161527983192 -0.021721286361744495 -0.017043735877992374 -0.023679015134840324 -0.03316583834781151 -0.029261447601345723 -0.0030620651152098717 -0.03568502681173978 -0.039742963180076696 -0.020944946964775914 -0.019696645641533502 -0.02057092691393189 -0.0180649019917776 -0.006879258141582148 -0.010304797168794252 -0.0015528034515844922 -1.7352866245348665e-05 -0.00015239858303215173 -0.01811122198438723 0.01377208130926775 -0.004349469918911184 -0.008362624770769342 0.005047237503782949 0.037353448820263806 0.028743682015809246 -0.012356115939546716 -0.020041254820124803 0.018802384331345033 0.00945269623712551 0.01171503479687277 -0.005928632720004561 0.010705052527975911 0.012841557410071733 0.02459834176404537 -0.02248022836640595 -0.028702867264478828 -0.008220263394717289 -0.011662387666793547 -0.009048221483665228 -0.012339794349972615 -0.0031862187759340416 -0.002435997545773794 0.012607891477920475 -0.039630753497618965 -0.05067180594816318 -0.022647893221493912 -0.012567793796083315 -0.014099421384113608 -0.020034114523859847 -0.01333614457127257 -0.007914273696233322 -0.012185810972877516 0.0030827456352584036 -0.009725170523025507 0.024037354208749417 0.01564509366764512 0.02403551235749882 0.0027013562661666454 0.018491914443729805 0.018511123728786383 0.039515311464897215 -0.012697773484322482 0.010020367754230394 0.010964285403594974 -0.004182908337905264 -0.008486870596874606 -0.01912076359133389 -0.004175650399116884 0.013953450798374801 0.005975218184926496 -0.03532721724721519 -0.04968708642777243 -0.022401622854395162 -0.011054134608296618 -0.012722618888216169 -0.01759987959868969 -0.004005847071960619 0.002452971362391688 -0.001978162156713838 0.010440781644726704 -0.01913599266146327 -0.014106291649002737 -0.023305118473084762 -0.019534056654297808 -0.02491436796520936 -0.020846092122574864 -0.03383001717595784 -0.007822946663674783 -0.0009264148619132633 0.02158008037278171 0.02710226977906669 0.007061658665022975 0.003691812751390864 -0.01035623822937707 0.006223074516739929 0.024549193161929973 0.012297399127907846 -0.013050022736143512 -0.033072544861914535 0.002001790377092274 0.005514094485018299 -0.0029682302554329483 0.01084227569043863 0.017098175830873436 0.0188465812878458 0.007367413653412622 0.023086456396124076 -0.01559147883359232 -0.009775587933433458 -0.024449615009572566 -0.019009107805888173 -0.022683813862141574 -0.013180332580702602 -0.0245433030791296 -8.592361179624166e-05 -0.02467877086551782 -0.014883626496051664 -0.006694274231628427 -0.007103489094395396 0.008179698412674227 -0.0015797612542043668 0.013439628630326262 0.01688843115042632 -0.00299703285035755 -0.007591441141459019 0.005105371136087773 0.00761326195743806 0.01878619683436805 0.0032656325887689976 -0.007007281349760086 -0.00978495310674783 -0.016268688777769717 -0.010861166737045765 0.0033957661345261 -0.011636836126820413 -0.0017817753476809326 -0.008198469314302287 0.004849144202664854 -0.0034330908594755404 0.011799113660754387 0.014411627001351577 0.010591278567379857 0.020401648702667766 0.01620648258142697 0.012528412908689154 0.01596101397443711 0.0028268420409692852 -0.004323996454765552 -0.0061226083796442005 -0.012009626239837524 0.006550699346300326 -0.007301374381396311 -0.015531968262750879 -0.004051267984748149 0.0004898999371533123 0.002468216958453974 -0.03295730846067035 -0.015182035591402038 0.00268882331746858 0.02384451888722767 0.0064977835350457916 -0.014449876408631492 0.001341457156439626 -0.00898430184295173 0.0008265553792575625 -0.011398042042019881 0.002120514134123001 0.002586670697576339 -0.012604602878311274 -0.0011009395504471744 0.02770462915818954 0.03546538675845509 0.03852579748616313 0.04768094790177272 0.026598152067198424 -0.008762934265496385 -0.001879364239603662 0.01315036315075053 -0.003309679600059628 -0.01011303323872169 -0.00152319237726404 -0.0006020792698427576 5.259672990263548e-05 -0.035789968983910715 -0.027385322545232363 -0.007707951313635665 0.018278466801779338 -0.02055937315502576 0.04347522608167046 0.02175807681046988 -0.0011462469604683982 -0.015579659597259281 -0.011246282879143742 -0.004881188582951267 0.0209168912166887 0.03799640588477896 -0.01506928840809687 0.01959960602586266 0.018352710204561522 0.026494292195936808 0.039241303942515515 0.017182873668696214 -0.01787020543072095 -0.015063783359551091 0.0033145487007054716 0.028691235385393955 0.01960415529335812 -0.00743415225169796 -0.0066293125331691885 0.0032090175607063717 0.0028168894481759707 -0.0018288724304883115 -0.0022313447068067096 0.008243916675142389 -0.04456571366607613 0.02543917465458957 0.0062785615329432705 -0.010583227094983336 -0.021208026385365914 -0.019170802012974063 -0.01644000620154406 0.007426207695894485 0.021883335192758428 0.007535924925780025 0.01117935253621211 -0.01109582120198167 -0.018962645686310883 -0.02578679204887701 -0.008207461167927229 0.001981887862192742 -0.01457512465563541 -0.023267060369353974 0.03356034494825973 -0.006299562052260961 -0.011758945249253916 -0.008203644521462298 0.007341203754589684 0.004872141943773065 -0.000926900531923383 0.0015300571014146462 0.02290096790877664 -0.011406758247990163 -0.016033622052401553 -0.0019973205327285365 -0.000461863504601548 0.012045584341426706 0.007370244401617272 0.02014556677887277 0.019339431429896043 0.034355540510231763 -0.0027105105699441567 0.004418968187877169 -0.00935508635459038 -0.01834049405910076 -0.02273636041053391 -0.008839515544773078 0.001157265295113027 -0.02215215501731449 -0.03408661808699951 -0.0034117400512410976 -0.018266832223102124 -0.013706441885900568 -0.009658642041026427 -0.017079416348590323 -0.011066828608937292 0.0015791077094020494 -0.0050753016796113845 -0.014949820435947682 -0.002015034634126028 -0.006209435514109753 0.011247365632627071 0.011335886701923249 0.02495703270894138 0.015000695497659715 0.021347149212908506 0.022077558401276044 0.03910060849573467 -0.009400283874013395 -0.03906051936694445 -0.014503102914847897 -0.002442372012012306 0.004716815662288458 -0.004851947738970591 0.007416449395818705 0.014362351947049589 0.0030309017090705817 0.013638354663680026 -0.010559108341907073 -0.003583696871335702 0.0006702320822278688 -0.00881122699050466 -0.0017364380812475242 0.011713085852028904 0.006961302217654916 -0.0013366947234258724 -0.03804440016382294 -0.013239534952765045 -0.018753063333416337 -0.016706564748840164 0.005428589728379214 -0.000614987372996304 -0.020407131425749046 -0.011477235816517294 -0.018561418790281944 -8.743838813640552e-05 -0.03992755587457233 -0.0042669566478545674 0.0034745730207136776 0.011209085055951078 0.005494527589302045 0.018580811285886997 0.024290357748946778 0.014512846375662865 0.015723627788975732 -0.0188845605661645 -0.006847730983085355 -0.01474872140870521 -0.00633074813587956 -0.002775443941675782 0.0061226966104162145 -0.007437778116397857 0.007857894824674276 -0.03144258661089347 -0.009286670105448206 -0.017142922115800773 -0.013213159900154037 0.010802644799012058 0.007069406102908109 -0.004524639879676924 0.007303732300508844 -0.005297400415415805 0.0032596821961346167 0.0044241559379499884 -0.003850801482483912 -0.0068275901539164244 0.018181550629588126 0.002389989509653972 -0.015751332213654066 -0.012117172209001615 -0.012001553392096248 0.026279082735709454 -0.010794440279733116 -0.0035816988386813296 -0.01702354314141451 -0.00999123506866667 -0.008526415275349171 0.0037014120667789325 -0.006135867348627486 0.011464713396364417 0.0030830328695673407 0.011449803511893942 0.002151630609662782 -0.0005798917192068926 0.018648726205937258 0.014714286733285724 0.023436523393558208 0.03284987587207191 0.02095845112383313 0.0022167491710351882 0.001962504254968441 0.0004413802684432317 -0.005379844235107517 0.015666014488297717 0.001332096792835368 -0.02006073370501597 -0.016215931675874075 -0.011124942406992806 -0.03592947984598641 -0.01441541393207022 0.008389633923693098 0.00930964145848873 0.014859688732371062 0.013406125582436645 -0.0008937127511983098 -0.0010047401357262508 0.008224976539084853 0.022959764342202 0.016914950879350136 0.009999937770377037 0.011676008465078462 0.0017223351875697067 -0.004039003842510682 -0.002745568978703021 -0.008468053916637562 0.008115863850890536 -0.00041161250508212847 -0.01555791403210675 -0.007068782386104335 -0.0016183259011017352 0.0018855949530416241 -0.02365492089176682 -0.009209573469254807 0.005721660223987422 0.025018687115658616 -0.002535678882328629 0.021684467096639175 0.01753705057006064 0.011129625729154565 -0.00019000192105125683 0.010576159428542163 0.005598849500571698 -0.026515703792340656 -0.009073993109676355 -0.01552861500087068 -0.007906352695422472 0.01219988528767916 0.011418875841007188 -0.005215706049933572 -0.0035185600289030367 -0.005663078106526876 0.00957828580101357 0.008323816868068427 0.0022758562111008284 -0.009573505776346497 -0.00022807989680106078 0.0004009120805270301 0.004532635768075993 -0.016996358272216464 -0.009203043165448814 0.0035953998744213513 0.02575653533905697 -0.019042720408171773 0.038078244411607086 0.02297792721617692 0.004776917122205822 -0.006176088155744907 -0.001317542881068446 0.0006027905441224207 0.03636385871527383 0.0494358283409695 -0.0056651346935098455 0.0058182512909867624 0.0209567652450785 0.013926560270696652 -0.002813311468668388 7.794028009748053e-05 -0.0008052080320280632 0.014136649814680113 0.014077551874184035 0.03514015250390308 0.0034642711196095585 0.004880638695970819 0.005273249066439096 -0.0029756551590040163 -0.01298494297245426 -0.00066205043310959 0.009552811910355868 -0.012175781050501282 -0.03159156785216671 0.029189027521180362 0.014278935529469261 0.0006700427129219523 -0.008268983467184292 -0.004636674938869147 -0.006044770982084984 0.028772535077774733 0.0411355447681398 0.027687768598200258 0.025475207865411187 -0.00651966048808468 -0.012315427597557951 -0.010550466079577112 0.0067726003300702334 0.013592299012740798 -0.009956209800682729 -0.021430060803808545 0.023674869694441464 -0.002303699308187716 0.0006335539566135921 0.0015371789463358818 -0.006544698553919228 -0.016950528457645914 -0.005078753472804212 0.0038793694252198803 -0.016005677845496825 0.015127377131931753 0.03303277307148417 0.01067487113240501 0.008274221906351662 -0.011508301740789173 0.01131055261712989 0.01964588477859425 -0.005235925472652425 0.017225406756881858 0.012877917588305933 0.020394420490708418 -0.005985388197981739 -0.011891643782710171 -0.009834563406581343 0.008898301691575777 0.012691349812875122 -0.011632872857629498 -0.027034834318990963 0.016554272035354534 0.00015634254068377522 -0.0037719318234940504 0.002989537336957577 -0.0009911109676679426 0.0002532630687309942 0.017261603956297545 0.010896704636678002 0.0007296248270570006 -0.001211301344101839 0.028580690459767077 0.011260587775179654 0.010229639085838894 -0.010423264129158265 0.0140289150972618 0.023366562577887273 -0.0022356211699644094 0.007051410666538796 0.0025589071101047196 -0.029653269608736172 -0.01232922458910357 0.00015562296148379689 0.011926132329053317 0.0018997268241032104 -0.005252222399292022 0.01439218867056498 0.009737960675087021 0.015008577835152843 -0.007849493379130622 -0.005136386668795338 0.0018494021375172068 -0.0019695721549022635 -0.00013279410531208435 0.016163264175947628 0.00953976696108734 0.001505348719272368 -0.03007024993445255 -0.009306390969184626 -0.016726592006192545 -0.01738296178440512 0.0061888289328012975 0.0029554930036696653 -0.011511499783330933 -0.006010341956880867 -0.012598488883021937 -0.006274824268594607 -0.03913093271571176 -0.015010912113476335 0.0012310336569571817 0.013415476028162293 0.0036113868855234396 4.788390552345188e-05 0.016243103964278933 0.012589657319146994 0.018119409118829463 0.0013195384460442789 0.0011075281220994276 0.005771054895662402 0.008482992716507388 0.012176949277111476 0.03201054907540239 0.0010658898009883568 -0.004249058676925803 -0.03164285209473179 -0.009407501082491122 -0.024730526589236995 -0.02249262652478473 0.006129733821328973 0.0033842543849037796 -0.004824083730847774 0.0031355777323566142 -0.005667738720780883 -0.013763501227905475 -0.007673937043806424 -0.01520745931141633 -0.015652478100965126 0.01464617122511264 0.00543265610726107 -0.014168758079973073 -0.01757486791453596 -0.022687201175528835 0.012456600133849301 -0.003203871843372531 0.00041826773178753974 0.002438688126775361 0.005019449108006394 0.012823877604782088 0.03506222252221731 -0.0008069362542953548 -0.004353751052262647 0.029998291408399217 0.013954577007479296 0.004862229841729485 -0.001839280055509878 0.008950460000822577 -0.001175566972557426 -0.012154168961489792 -0.01762810824527429 -0.01735705489420221 0.007787457525810642 0.004528231896151348 0.0007034328490088459 -0.007733200801469392 0.01801564864278783 0.00828360001814095 -0.011187985614613835 -0.008571556900262775 -0.0029400618357385546 -0.02955297535460389 -0.01152157833355176 0.008073625642340045 0.007852535303167728 0.016529148919349486 0.020624947517457644 0.008335591405765135 0.006609042161299743 0.011159001495885354 0.048715997219823955 0.015238393507312655 0.01050430005462845 0.0067676011685443805 0.014739456926992946 0.008013024858704986 0.0017706997218833232 -0.0037897223926456887 -0.011104679056823934 -0.03856790071906014 -0.02355859605645391 -0.009644090728842054 -0.005635463830258767 0.026083949576679522 0.025079651434945477 -3.053539296468086e-05 -0.027455947939664403 -0.0375933715814626 -0.004044275985304369 0.023920383878323306 0.021578287306736294 0.013831265087699812 -0.00039757763133526974 0.00888790426139918 0.0045120120775258435 -0.022880538245585353 -0.003382627151652705 -0.008923119328093431 -0.0029959450918815786 0.01083790659964744 0.007417662695392538 -0.009586652738434414 -0.0035528192302863547 -0.0017212230174987264 0.011672547764942805 0.01029937769952886 0.02157428264044568 0.014709432204126516 0.013250800920855954 0.004385013163279949 0.00918289765992566 0.0033529165516768002 -0.003989875583764834 -0.020107529683211247 -0.03710698232845743 -0.0025750122168785934 -0.03186304534302635 -0.007516406532193763 0.001736878476938659 0.0047485125803982805 0.0029298269999388183 0.00711053378072332 0.020021269120805093 0.008784443007794223 -0.0019322551910257726 0.00765923377311863 0.01895546138958225 0.010106701752777187 -0.00798088104626302 -0.0013390258184481963 0.0013495660201901807 0.013013644710761302 0.011978231538630382 0.0405245410723815 0.004661007052619022 0.00337091775765978 -0.0006608722425498431 -0.007077653927973752 -0.01172146647863243 -0.00041051207202253087 0.011984967600727975 -0.013015893140401637 0.005887476994560773 -0.016606548527745815 0.0007352708164999194 0.0016841416915177908 0.004221804045464349 0.005192891934046531 0.00936422630813943 0.02256833713960297 0.0033577105247119955 -0.007662640366875506 0.01759637420963758 0.01632561296848476 0.023968148060600374 0.012589133438418942 0.023280280203826068 0.0003099702767581532 -0.021953932005978113 -0.0033130856116362043 0.026558200523593527 -0.003040897738977165 -0.0011349670463106103 -0.002304765347195994 -0.008380768741350617 -0.015454752146943343 -0.006027357342082281 0.002603613818722832 -0.02229539873645692 0.013839398752295446 0.03068808079355183 0.007869694217567414 0.007849376001364176 -0.012680981521621558 0.008718296282190199 0.018067478157346183 -0.004542776616298124 0.016994414221282665 -0.027353278306043855 0.014534656276431229 0.012925488953476885 0.02170906280269785 0.00845351643231544 0.02022652672698637 -0.0032988132551870822 -0.031951948432723934 -0.008668352422542328 0.0015087660543385171 0.007408970688849513 0.007581370892451394 0.0009747804112500046 0.00039458031881957795 0.00015009852949022335 0.004291001204932061 0.01674315345032974 0.016471559371384635 0.0025001280778033886 0.02764129726927956 0.008417850342801191 0.009577047978637083 -0.012019817851076408 0.00888091555984791 0.016512516104881376 -0.003007062786434251 0.012241113578719619 0.004369245764559625 -0.023864539276203082 -0.010798845423764778 0.0005917184167387387 0.011102990009739187 -0.00020480643358788747 -0.010434230354302979 0.01026004913922202 0.009887031319572076 -0.013381590350898321 -0.00038038012697061505 0.009628494530356241 0.001832968934374612 0.0008600545484571302 -0.0003117331398098995 0.003944121579439641 0.02075163711701037 0.01506478308444517 -0.03634274726683769 0.016816842595008163 0.01725976340771541 0.0072152020017694895 -0.0036334817019336237 0.004585815544825648 -2.441617189480078e-05 -0.002440684206122985 -0.025667651837642635 -0.0037448425436757784 -0.03462672954727032 -0.01421098083044597 0.00204858901212935 0.013743516219193215 0.004027653670446489 -0.005801704540415063 0.013051843975037948 0.011532325470825848 0.0035906790711351757 -9.664330435610238e-06 0.0004963843126099664 0.004215163054706223 0.00925652264402078 0.01406421529395711 0.03543260980287808 -0.0026615507176711867 -0.007592724496944031 -0.04628807738072742 0.010377880100185349 0.01050663356961545 0.004798722018981366 -0.0038577967352361854 0.007669477181176001 -0.00034257411007913814 -0.005075171693026942 -0.0305569876232382 0.026974422416787838 0.00594098604034682 -0.003002330853543245 0.0009933649741322471 0.014868441772312004 0.020621347584971805 0.025655376764175994 0.010334965801418754 0.010470091891275957 -0.004427429662944309 -0.009231560584853938 -0.00507894609777165 -0.0034367374708398077 -0.002397662599932157 0.0038896716364405313 0.024771018252317173 -0.009358808923360403 -0.01292380849227828 0.014913573882673007 0.0100054682567776 0.003460897443926213 -0.007125076087079509 -0.0010370602053917733 -0.013800915523468366 -0.025749740616553 -0.026253858135522303 -0.024183974465070583 0.01719509130736083 0.00016615824320665394 -0.01096364633943166 -0.006464958575763567 0.006699204938659694 0.016417387677154532 0.02474625067559453 0.013834244117239325 0.009647856783706612 0.00455778507814774 -0.020635178864197516 -0.048315082654878515 -0.029657312527646237 -0.009497834093885415 0.011080401803816971 0.024481529931499588 0.024789254564136495 6.527567876254397e-05 0.03482129845358695 0.011797740598431769 0.008822274840036606 0.0021273052949504438 0.007534990494701556 -0.0006921288184397281 -0.010221534071218528 -0.013726217429810285 -0.015984078663016713 -0.04423234123861707 -0.024126680768031282 -0.012566926704145616 -0.008987467704035646 0.017261468049470118 0.013924797312688432 -0.006509609762586041 -0.034850701606779826 -0.04597375917841533 0.030911319137125113 -0.004392279301796244 -0.033574765202206765 -0.023864254908211785 -0.004605829721561244 0.01721309942005677 0.030335415830613763 0.03441548133745676 0.014680321456109605 -0.006945230611415139 0.005813723943109804 -0.00046447072711243263 0.008206032189046471 0.0066577334294288925 0.003102197507661572 0.0239529064235915 0.005634750202653651 -0.013207504308477221 0.027683422014081183 0.017986421610668636 0.015172983194777069 -0.0015376065441152218 0.001356611106895213 0.0006413211096318627 -0.0021567834819868075 -0.01497942902062272 -0.03052227465961509 0.005841068821907137 -0.02615642033144444 -0.006478061690170491 -0.004588287122983302 -0.003692448558644833 -0.003793128957255106 0.006176503111975831 0.023739491435995005 0.012793353532074475 -0.03999229686448545 0.007522501991508601 0.020049437460261672 0.006180837354598605 0.018881824523134635 0.022084940371818688 0.010929155924915862 -0.004575460371688672 -0.02655627659541374 -0.034813580826234 -0.011509871423318585 0.017679669436841676 0.016497008725776103 0.019444900431166097 0.02232423737465801 -0.00505758532507274 -0.0012952774143310754 -0.00699124231790721 0.013923892014754741 -0.012514432638001628 0.0015721062659533537 -0.003828018260429618 -0.0033757310879361266 -0.0011054925245461743 0.007358977853650465 0.022579233217516387 0.007894649365895215 0.0005642806532942685 0.013849526487184873 0.011475992614129467 0.018725423445236488 0.003984214364144686 0.014647438893883058 -0.0042925157447497135 -0.020078833351719307 -0.0034950669608552667 -0.02101440928126298 -0.007993328381173004 0.01854901536075479 0.017766644773917095 0.019929296112968866 0.02263931376515537 -0.00415417507643762 -0.0008767512747360712 -0.0019847704696435375 -0.007225814422837011 0.003749442143639499 0.018435942159552864 0.020264508990470255 0.02070462982350533 0.018294502160662085 0.010972174135578019 -0.0051196471310452725 -0.006381993848840004 -0.01741294360394887 0.0095917055059853 0.008126080714668627 0.01715929688769689 -0.0003311120152814594 0.011361972152154745 -0.007407276456284076 -0.030415176850284564 -0.012965043303858139 0.007049276321648937 0.009375944575666994 0.008897335859244484 -0.001641817677549162 -0.009042245864300481 -0.005043877570955524 0.001579320226770934 0.015465007566743568 0.018625235469241292 -0.025442701188387082 -0.003064565617765755 0.011733878619194945 0.015842211377630516 0.01828310295192085 0.017821023711512493 0.009518541868249158 -0.00979070057627495 -0.017519003088612577 0.014759463816529168 0.006027040899120111 0.016016232740505 0.02350315530662332 0.022768131521137523 0.013973397742820203 0.01601033213512847 0.019919390406352003 -0.00236440959987743 -0.017926341659967874 -0.003110608998191579 0.004897939583797931 -0.0030490470812042803 -0.006886862255523092 -0.0056823210282849505 -0.002788506856087923 0.01462679468816014 0.011149572537978557 -0.029359308191595067 0.015445686413892353 0.012909831968485733 0.003025728482032545 -0.009037248437223207 -0.004497057120902177 -0.007630868155686583 -0.008290293372668001 -0.025005515893223647 0.0007402676258642627 0.006417312129989673 0.014145277346097829 0.02092031079455897 0.017760561719415403 0.011151647061107344 0.01432227602413254 0.018466441038013287 -0.007592776514780907 -0.03241187976145756 -0.007724098828163852 -0.006166579877791405 0.010905817030177165 0.016710687613090715 0.019301732382103556 0.02705538324500592 0.022432173696303032 0.021285054962512123 -0.027225499438389873 0.01832785583395317 0.014251156380022067 0.007333542261135426 -0.0033600126257774397 0.004679683595992802 -0.0026300813346011335 -0.005850483666001487 -0.026291148654524518 0.02890921416224236 0.008048846576387627 0.0007494706938754553 0.0018470040745131387 0.011930891770626496 0.019463352004326563 0.025397362228340804 0.008908423886807475 0.006132950722365407 -0.03265298356910644 -0.007524946131723222 -0.0013988711745265118 0.012507015414080511 0.01760382423241471 0.019361632765849006 0.027002669997354834 0.02510918502593504 0.02642842619693812 -0.01009847051791595 0.004141511647186638 0.005258737237632176 0.011830965837554821 0.022614347049151304 0.023274186594523735 0.016375297862915354 0.01042594583639985 0.0004435627907786286 0.011749124231051854 0.0014326643414833157 -0.0051851351252345974 -0.002858016162852926 0.007419773834157662 0.014666427187443591 0.019999899116227023 0.0069640566440534995 0.0022441762264859147 0.006287559534609132 -0.014956972892037672 -0.040225170812825166 -0.026296430768391207 -0.0074298457004511285 0.010425997350712292 0.021522485146216998 0.022205552563984227 -0.0025935329432678006 -0.03324567515445217 -0.006022653257662644 -0.0034362370196640932 0.007542280044784593 0.01855378080741311 0.017784725171638205 0.00834165710986056 0.005565723084636675 -0.0011858293586902767 -0.012113052489688437 -0.01571965288530913 0.002945812027956851 0.0038960611339527553 0.0035012829913288776 0.019812044802529745 0.00979407816572145 0.004020960710209113 -0.0014542055865369614 0.01901970581596286 -0.010942657644346595 -0.034955349744306655 -0.02352772816378363 -0.007012141624873031 0.011477593936592926 0.022888822294603168 0.022006104820891756 0.001514944197588417 -0.012646314650744245 0.0007114349434808367 -0.005058672133794763 0.0045922135775764645 -0.0011651172100400435 -0.007228893096523692 0.014896154704967189 -0.0032253277755333173 -0.016503705470313292 0.0017495448738905892 -0.011862329643355374 0.0034310479149241026 0.005137666904447495 0.006275580550541727 0.024276963329937375 0.015674058282615737 0.008001335262456995 0.0018193214149110535 -0.006842793665044104 -0.0003356667207683111 0.0037397860631175153 -0.011019990365585432 -0.014133734462169704 -0.010403374423699454 -0.017312791273154448 -0.02782068970917405 -0.009534489919859442 
0.3802795879350113
0.021159166055808004 0.01051159798574246 0.027576716675617736 0.050407197928185474 0.03343905966583015 0.01872997915716155 0.02190124074716378 0.020929326442495188 0.008695867509216495 0.02297028244950501 0.015413559937616424 0.022386689756281757 0.012782528790562084 0.024949965909993706 0.004480586448402744 0.02627445559303577 0.0 0.04530608888301843 0.010278437204898795 0.011475770529008784 0.02134540837969432 0.00253281215020722 0.027911715212254707 0.02313442415956305 0.029339377232616745 0.0164472461825407 0.02272098623067558 0.025416668150422747 0.022398854090926453 0.02250473648449732 0.023600787574996413 0.030279816999405167 0.02048517816008429 0.036832151413966244 0.002131830060854071 0.03201980745772952 0.008327792870194996 0.029863380523817443 0.012888658811213993 0.020159434713964246 0.027816564953082268 0.006994199497665947 0.016577113345508255 0.03652449881533486 0.01881890870152991 0.044276771476999946 0.019461993864102932 0.02775218560984239 0.03618664965689038 0.024852645858418607 0.018191886424804977 0.01659891922017149 0.013572930582932807 0.025827775968600995 0.004769218917364836 0.009278881491554751 0.02497915308763827 0.024876769421260082 0.006692097573632815 0.0027827428893802816 
